<?xml version="1.0"?>
<opencv_storage>
<cascade>
  <stageType>BOOST</stageType>
  <featureType>HAAR</featureType>
  <height>24</height>
  <width>24</width>
  <stageParams>
    <boostType>GAB</boostType>
    <minHitRate>9.9500000476837158e-01</minHitRate>
    <maxFalseAlarm>5.0000000000000000e-01</maxFalseAlarm>
    <weightTrimRate>9.4999998807907104e-01</weightTrimRate>
    <maxDepth>1</maxDepth>
    <maxWeakCount>100</maxWeakCount></stageParams>
  <featureParams>
    <maxCatCount>0</maxCatCount>
    <featSize>1</featSize>
    <mode>BASIC</mode></featureParams>
  <stageNum>20</stageNum>
  <stages>
    <!-- stage 0 -->
    <_>
      <maxWeakCount>7</maxWeakCount>
      <stageThreshold>-2.1427407264709473e+00</stageThreshold>
      <weakClassifiers>
        <_>
          <internalNodes>
            0 -1 169 -9.8863169550895691e-03</internalNodes>
          <leafValues>
            5.9523808956146240e-01 -9.3478262424468994e-01</leafValues></_>
        <_>
          <internalNodes>
            0 -1 81 -3.1245253980159760e-02</internalNodes>
          <leafValues>
            5.6837671995162964e-01 -8.4033584594726563e-01</leafValues></_>
        <_>
          <internalNodes>
            0 -1 361 -6.8576610647141933e-04</internalNodes>
          <leafValues>
            5.8035939931869507e-01 -7.3751044273376465e-01</leafValues></_>
        <_>
          <internalNodes>
            0 -1 358 -2.6570109184831381e-04</internalNodes>
          <leafValues>
            8.3898884057998657e-01 -3.4503838419914246e-01</leafValues></_>
        <_>
          <internalNodes>
            0 -1 103 3.3635282306931913e-05</internalNodes>
          <leafValues>
            3.1076201796531677e-01 -8.6270195245742798e-01</leafValues></_>
        <_>
          <internalNodes>
            0 -1 134 7.3747985064983368e-02</internalNodes>
          <leafValues>
            2.0379254221916199e-01 -9.8898321390151978e-01</leafValues></_>
        <_>
          <internalNodes>
            0 -1 74 -8.3446219563484192e-02</internalNodes>
          <leafValues>
            -9.6985840797424316e-01 2.0037199556827545e-01</leafValues></_></weakClassifiers></_>
    <!-- stage 1 -->
    <_>
      <maxWeakCount>100</maxWeakCount>
      <stageThreshold>-2.7132086753845215e+00</stageThreshold>
      <weakClassifiers>
        <_>
          <internalNodes>
            0 -1 138 -2.8322858270257711e-04</internalNodes>
          <leafValues>
            3.6507937312126160e-01 -9.7113400697708130e-01</leafValues></_>
        <_>
          <internalNodes>
            0 -1 376 9.4568240456283092e-04</internalNodes>
          <leafValues>
            -9.0664082765579224e-01 6.4127957820892334e-01</leafValues></_>
        <_>
          <internalNodes>
            0 -1 295 -3.0814830097369850e-04</internalNodes>
          <leafValues>
            9.5597279071807861e-01 -6.3082867860794067e-01</leafValues></_>
        <_>
          <internalNodes>
            0 -1 245 -1.6754258424043655e-02</internalNodes>
          <leafValues>
            7.5929468870162964e-01 -3.4791564941406250e-01</leafValues></_>
        <_>
          <internalNodes>
            0 -1 179 -2.7676743920892477e-03</internalNodes>
          <leafValues>
            9.3787646293640137e-01 -1.2709203362464905e-01</leafValues></_>
        <_>
          <internalNodes>
            0 -1 137 -1.3018760830163956e-02</internalNodes>
          <leafValues>
            -1. 1.8851238489151001e-01</leafValues></_>
        <_>
          <internalNodes>
            0 -1 92 3.0187139287590981e-02</internalNodes>
          <leafValues>
            1.1519194394350052e-01 -9.7783356904983521e-01</leafValues></_>
        <_>
          <internalNodes>
            0 -1 255 1.8570695538073778e-03</internalNodes>
          <leafValues>
            -1.3865651190280914e-01 9.8495197296142578e-01</leafValues></_>
        <_>
          <internalNodes>
            0 -1 73 5.6775912642478943e-02</internalNodes>
          <leafValues>
            9.8869144916534424e-02 -9.8458325862884521e-01</leafValues></_>
        <_>
          <internalNodes>
            0 -1 205 3.9436869323253632e-02</internalNodes>
          <leafValues>
            3.4775491803884506e-02 -9.7758620977401733e-01</leafValues></_>
        <_>
          <internalNodes>
            0 -1 298 -1.3859113678336143e-03</internalNodes>
          <leafValues>
            9.2540723085403442e-01 -8.4769703447818756e-02</leafValues></_>
        <_>
          <internalNodes>
            0 -1 381 1.4990047551691532e-02</internalNodes>
          <leafValues>
            5.3775597363710403e-02 -1.</leafValues></_>
        <_>
          <internalNodes>
            0 -1 157 -1.6753986710682511e-03</internalNodes>
          <leafValues>
            9.6648287773132324e-01 -4.5896217226982117e-02</leafValues></_>
        <_>
          <internalNodes>
            0 -1 190 -1.2737466022372246e-04</internalNodes>
          <leafValues>
            -1. 3.1016563996672630e-02</leafValues></_>
        <_>
          <internalNodes>
            0 -1 74 3.7953481078147888e-02</internalNodes>
          <leafValues>
            3.4829106181859970e-02 -8.9380848407745361e-01</leafValues></_>
        <_>
          <internalNodes>
            0 -1 327 -6.2709907069802284e-05</internalNodes>
          <leafValues>
            1. -2.2544445469975471e-02</leafValues></_>
        <_>
          <internalNodes>
            0 -1 226 -2.9411636292934418e-02</internalNodes>
          <leafValues>
            -1. 7.8236525878310204e-03</leafValues></_>
        <_>
          <internalNodes>
            0 -1 367 -7.9765601549297571e-04</internalNodes>
          <leafValues>
            1. -7.4373064562678337e-03</leafValues></_>
        <_>
          <internalNodes>
            0 -1 281 -7.4734166264533997e-04</internalNodes>
          <leafValues>
            -1. 4.8584784381091595e-03</leafValues></_>
        <_>
          <internalNodes>
            0 -1 164 -2.7357201906852424e-04</internalNodes>
          <leafValues>
            1. -4.4176457449793816e-03</leafValues></_>
        <_>
          <internalNodes>
            0 -1 133 -2.5622083921916783e-04</internalNodes>
          <leafValues>
            -1. 3.3711851574480534e-03</leafValues></_>
        <_>
          <internalNodes>
            0 -1 60 -1.8229131819680333e-03</internalNodes>
          <leafValues>
            1. 1.2771130819544396e-08</leafValues></_>
        <_>
          <internalNodes>
            0 -1 59 -3.0796451028436422e-03</internalNodes>
          <leafValues>
            -1. -6.1599729935240145e-16</leafValues></_>
        <_>
          <internalNodes>
            0 -1 34 -7.8934355406090617e-04</internalNodes>
          <leafValues>
            1. 1.2326929773698141e-14</leafValues></_>
        <_>
          <internalNodes>
            0 -1 33 -6.5000331960618496e-04</internalNodes>
          <leafValues>
            -1. -5.7836726774756608e-15</leafValues></_>
        <_>
          <internalNodes>
            0 -1 30 -2.3968652822077274e-03</internalNodes>
          <leafValues>
            1. -6.1229991583434170e-15</leafValues></_>
        <_>
          <internalNodes>
            0 -1 29 -2.7326736017130315e-04</internalNodes>
          <leafValues>
            -1. 1.4429304512298888e-14</leafValues></_>
        <_>
          <internalNodes>
            0 -1 18 -1.3157282410247717e-05</internalNodes>
          <leafValues>
            1. -5.7605203024118853e-15</leafValues></_>
        <_>
          <internalNodes>
            0 -1 18 -4.3337106035323814e-05</internalNodes>
          <leafValues>
            -1. -1.0772025463192791e-14</leafValues></_>
        <_>
          <internalNodes>
            0 -1 15 -7.3749700095504522e-04</internalNodes>
          <leafValues>
            1. 7.7326781249323871e-16</leafValues></_>
        <_>
          <internalNodes>
            0 -1 67 -1.5200983034446836e-03</internalNodes>
          <leafValues>
            -1. 1.1008172295987606e-03</leafValues></_>
        <_>
          <internalNodes>
            0 -1 36 -1.8091218080371618e-03</internalNodes>
          <leafValues>
            1. 4.4466746951243863e-10</leafValues></_>
        <_>
          <internalNodes>
            0 -1 35 -3.5149240284226835e-04</internalNodes>
          <leafValues>
            -1. -1.8416823496331071e-15</leafValues></_>
        <_>
          <internalNodes>
            0 -1 28 -2.8136104447185062e-05</internalNodes>
          <leafValues>
            1. -1.1618728067597662e-14</leafValues></_>
        <_>
          <internalNodes>
            0 -1 27 -6.7354028578847647e-04</internalNodes>
          <leafValues>
            -1. 6.1393329181817953e-15</leafValues></_>
        <_>
          <internalNodes>
            0 -1 27 -5.1313400035724044e-04</internalNodes>
          <leafValues>
            1. 6.9169667620016563e-15</leafValues></_>
        <_>
          <internalNodes>
            0 -1 27 -6.7354028578847647e-04</internalNodes>
          <leafValues>
            -1. -1.9855583072625384e-15</leafValues></_>
        <_>
          <internalNodes>
            0 -1 27 -5.1313400035724044e-04</internalNodes>
          <leafValues>
            1. 4.5851782318347654e-15</leafValues></_>
        <_>
          <internalNodes>
            0 -1 27 -6.7354028578847647e-04</internalNodes>
          <leafValues>
            -1. -1.0555627179894157e-14</leafValues></_>
        <_>
          <internalNodes>
            0 -1 27 -5.1313400035724044e-04</internalNodes>
          <leafValues>
            1. 5.9427115836521282e-15</leafValues></_>
        <_>
          <internalNodes>
            0 -1 27 -2.6722607435658574e-04</internalNodes>
          <leafValues>
            -1. -7.7347389560930568e-15</leafValues></_>
        <_>
          <internalNodes>
            0 -1 27 -5.1313400035724044e-04</internalNodes>
          <leafValues>
            1. 8.6817649898036746e-15</leafValues></_>
        <_>
          <internalNodes>
            0 -1 27 -2.6722607435658574e-04</internalNodes>
          <leafValues>
            -1. -7.7487615865348518e-15</leafValues></_>
        <_>
          <internalNodes>
            0 -1 27 -5.1313400035724044e-04</internalNodes>
          <leafValues>
            1. 9.2541178577576141e-15</leafValues></_>
        <_>
          <internalNodes>
            0 -1 27 -2.6722607435658574e-04</internalNodes>
          <leafValues>
            -1. -7.7278424138365123e-15</leafValues></_>
        <_>
          <internalNodes>
            0 -1 27 -5.1313400035724044e-04</internalNodes>
          <leafValues>
            1. 8.9119953211309715e-15</leafValues></_>
        <_>
          <internalNodes>
            0 -1 27 -2.6722607435658574e-04</internalNodes>
          <leafValues>
            -1. -8.1977153066009958e-15</leafValues></_>
        <_>
          <internalNodes>
            0 -1 27 -5.1313400035724044e-04</internalNodes>
          <leafValues>
            1. 8.9967197916800828e-15</leafValues></_>
        <_>
          <internalNodes>
            0 -1 27 -2.6722607435658574e-04</internalNodes>
          <leafValues>
            -1. -8.3142636520113986e-15</leafValues></_>
        <_>
          <internalNodes>
            0 -1 27 -5.1313400035724044e-04</internalNodes>
          <leafValues>
            1. 3.6514569681431446e-15</leafValues></_>
        <_>
          <internalNodes>
            0 -1 27 -2.6722607435658574e-04</internalNodes>
          <leafValues>
            -1. -6.0504152110273015e-15</leafValues></_>
        <_>
          <internalNodes>
            0 -1 27 -5.1313400035724044e-04</internalNodes>
          <leafValues>
            1. 9.2644787647684287e-15</leafValues></_>
        <_>
          <internalNodes>
            0 -1 27 -2.6722607435658574e-04</internalNodes>
          <leafValues>
            -1. -7.8931256469001385e-15</leafValues></_>
        <_>
          <internalNodes>
            0 -1 27 -5.1313400035724044e-04</internalNodes>
          <leafValues>
            1. 8.9023255930051164e-15</leafValues></_>
        <_>
          <internalNodes>
            0 -1 27 -2.6722607435658574e-04</internalNodes>
          <leafValues>
            -1. -8.2193239641184003e-15</leafValues></_>
        <_>
          <internalNodes>
            0 -1 27 -5.1313400035724044e-04</internalNodes>
          <leafValues>
            1. 8.9884315742911995e-15</leafValues></_>
        <_>
          <internalNodes>
            0 -1 27 -2.6722607435658574e-04</internalNodes>
          <leafValues>
            -1. -8.3167920453589526e-15</leafValues></_>
        <_>
          <internalNodes>
            0 -1 27 -5.1313400035724044e-04</internalNodes>
          <leafValues>
            1. 3.6433987201994408e-15</leafValues></_>
        <_>
          <internalNodes>
            0 -1 27 -2.6722607435658574e-04</internalNodes>
          <leafValues>
            -1. -6.1890321528454677e-15</leafValues></_>
        <_>
          <internalNodes>
            0 -1 27 -5.1313400035724044e-04</internalNodes>
          <leafValues>
            1. 9.2644787647684287e-15</leafValues></_>
        <_>
          <internalNodes>
            0 -1 27 -2.6722607435658574e-04</internalNodes>
          <leafValues>
            -1. -7.8931256469001385e-15</leafValues></_>
        <_>
          <internalNodes>
            0 -1 27 -5.1313400035724044e-04</internalNodes>
          <leafValues>
            1. 8.9023255930051164e-15</leafValues></_>
        <_>
          <internalNodes>
            0 -1 27 -2.6722607435658574e-04</internalNodes>
          <leafValues>
            -1. -8.2193239641184003e-15</leafValues></_>
        <_>
          <internalNodes>
            0 -1 27 -5.1313400035724044e-04</internalNodes>
          <leafValues>
            1. 8.9884315742911995e-15</leafValues></_>
        <_>
          <internalNodes>
            0 -1 27 -2.6722607435658574e-04</internalNodes>
          <leafValues>
            -1. -8.3738024449068506e-15</leafValues></_>
        <_>
          <internalNodes>
            0 -1 27 -5.1313400035724044e-04</internalNodes>
          <leafValues>
            1. 3.6438595061227472e-15</leafValues></_>
        <_>
          <internalNodes>
            0 -1 27 -2.6722607435658574e-04</internalNodes>
          <leafValues>
            -1. -6.1885726374715823e-15</leafValues></_>
        <_>
          <internalNodes>
            0 -1 27 -5.1313400035724044e-04</internalNodes>
          <leafValues>
            1. 9.2647083106971347e-15</leafValues></_>
        <_>
          <internalNodes>
            0 -1 27 -2.6722607435658574e-04</internalNodes>
          <leafValues>
            -1. -7.5618696959538212e-15</leafValues></_>
        <_>
          <internalNodes>
            0 -1 27 -5.1313400035724044e-04</internalNodes>
          <leafValues>
            1. 8.8813750800877285e-15</leafValues></_>
        <_>
          <internalNodes>
            0 -1 27 -2.6722607435658574e-04</internalNodes>
          <leafValues>
            -1. -8.2800113336903292e-15</leafValues></_>
        <_>
          <internalNodes>
            0 -1 27 -5.1313400035724044e-04</internalNodes>
          <leafValues>
            1. 8.8705542341865548e-15</leafValues></_>
        <_>
          <internalNodes>
            0 -1 27 -2.6722607435658574e-04</internalNodes>
          <leafValues>
            -1. -8.3738024449068506e-15</leafValues></_>
        <_>
          <internalNodes>
            0 -1 27 -5.1313400035724044e-04</internalNodes>
          <leafValues>
            1. 3.4099450049913677e-15</leafValues></_>
        <_>
          <internalNodes>
            0 -1 27 -2.6722607435658574e-04</internalNodes>
          <leafValues>
            -1. -6.1674234953280633e-15</leafValues></_>
        <_>
          <internalNodes>
            0 -1 27 -5.1313400035724044e-04</internalNodes>
          <leafValues>
            1. 9.2727669821573121e-15</leafValues></_>
        <_>
          <internalNodes>
            0 -1 27 -2.6722607435658574e-04</internalNodes>
          <leafValues>
            -1. -7.6181897636497069e-15</leafValues></_>
        <_>
          <internalNodes>
            0 -1 27 -5.1313400035724044e-04</internalNodes>
          <leafValues>
            1. 8.7920452914043955e-15</leafValues></_>
        <_>
          <internalNodes>
            0 -1 27 -2.6722607435658574e-04</internalNodes>
          <leafValues>
            -1. -8.1016253479656263e-15</leafValues></_>
        <_>
          <internalNodes>
            0 -1 27 -5.1313400035724044e-04</internalNodes>
          <leafValues>
            1. 8.8705542341865548e-15</leafValues></_>
        <_>
          <internalNodes>
            0 -1 27 -2.6722607435658574e-04</internalNodes>
          <leafValues>
            -1. -8.3738024449068506e-15</leafValues></_>
        <_>
          <internalNodes>
            0 -1 27 -5.1313400035724044e-04</internalNodes>
          <leafValues>
            1. 3.4099450049913677e-15</leafValues></_>
        <_>
          <internalNodes>
            0 -1 27 -2.6722607435658574e-04</internalNodes>
          <leafValues>
            -1. -6.1674234953280633e-15</leafValues></_>
        <_>
          <internalNodes>
            0 -1 27 -5.1313400035724044e-04</internalNodes>
          <leafValues>
            1. 9.2727669821573121e-15</leafValues></_>
        <_>
          <internalNodes>
            0 -1 27 -2.6722607435658574e-04</internalNodes>
          <leafValues>
            -1. -7.8460001218466982e-15</leafValues></_>
        <_>
          <internalNodes>
            0 -1 27 -5.1313400035724044e-04</internalNodes>
          <leafValues>
            1. 8.7922756843660486e-15</leafValues></_>
        <_>
          <internalNodes>
            0 -1 27 -2.6722607435658574e-04</internalNodes>
          <leafValues>
            -1. -8.1011654090752672e-15</leafValues></_>
        <_>
          <internalNodes>
            0 -1 27 -5.1313400035724044e-04</internalNodes>
          <leafValues>
            1. 8.8710141730769139e-15</leafValues></_>
        <_>
          <internalNodes>
            0 -1 27 -2.6722607435658574e-04</internalNodes>
          <leafValues>
            -1. -8.3149531368304636e-15</leafValues></_>
        <_>
          <internalNodes>
            0 -1 27 -5.1313400035724044e-04</internalNodes>
          <leafValues>
            1. 3.4099450049913677e-15</leafValues></_>
        <_>
          <internalNodes>
            0 -1 27 -2.6722607435658574e-04</internalNodes>
          <leafValues>
            -1. -6.1674234953280633e-15</leafValues></_>
        <_>
          <internalNodes>
            0 -1 27 -5.1313400035724044e-04</internalNodes>
          <leafValues>
            1. 9.2727669821573121e-15</leafValues></_>
        <_>
          <internalNodes>
            0 -1 27 -2.6722607435658574e-04</internalNodes>
          <leafValues>
            -1. -7.8460001218466982e-15</leafValues></_>
        <_>
          <internalNodes>
            0 -1 27 -5.1313400035724044e-04</internalNodes>
          <leafValues>
            1. 8.7922756843660486e-15</leafValues></_>
        <_>
          <internalNodes>
            0 -1 27 -2.6722607435658574e-04</internalNodes>
          <leafValues>
            -1. -8.1011654090752672e-15</leafValues></_>
        <_>
          <internalNodes>
            0 -1 27 -5.1313400035724044e-04</internalNodes>
          <leafValues>
            1. 8.8710141730769139e-15</leafValues></_>
        <_>
          <internalNodes>
            0 -1 27 -2.6722607435658574e-04</internalNodes>
          <leafValues>
            -1. -8.3149531368304636e-15</leafValues></_>
        <_>
          <internalNodes>
            0 -1 27 -5.1313400035724044e-04</internalNodes>
          <leafValues>
            1. 3.4099450049913677e-15</leafValues></_>
        <_>
          <internalNodes>
            0 -1 27 -2.6722607435658574e-04</internalNodes>
          <leafValues>
            -1. -6.1674234953280633e-15</leafValues></_>
        <_>
          <internalNodes>
            0 -1 27 -5.1313400035724044e-04</internalNodes>
          <leafValues>
            1. 9.2727669821573121e-15</leafValues></_></weakClassifiers></_>
    <!-- stage 2 -->
    <_>
      <maxWeakCount>100</maxWeakCount>
      <stageThreshold>-2.8736338615417480e+00</stageThreshold>
      <weakClassifiers>
        <_>
          <internalNodes>
            0 -1 122 -2.5787641061469913e-04</internalNodes>
          <leafValues>
            8.1632655858993530e-01 -9.7795593738555908e-01</leafValues></_>
        <_>
          <internalNodes>
            0 -1 323 8.9050078531727195e-04</internalNodes>
          <leafValues>
            -9.3326729536056519e-01 7.8174787759780884e-01</leafValues></_>
        <_>
          <internalNodes>
            0 -1 337 -1.2343688867986202e-03</internalNodes>
          <leafValues>
            7.0728868246078491e-01 -7.5121492147445679e-01</leafValues></_>
        <_>
          <internalNodes>
            0 -1 224 -8.8155487901531160e-05</internalNodes>
          <leafValues>
            9.6625322103500366e-01 -2.8735798597335815e-01</leafValues></_>
        <_>
          <internalNodes>
            0 -1 176 -2.1155973081476986e-04</internalNodes>
          <leafValues>
            -7.6280546188354492e-01 1.2289668619632721e-01</leafValues></_>
        <_>
          <internalNodes>
            0 -1 322 7.2624476160854101e-04</internalNodes>
          <leafValues>
            -9.2759110033512115e-02 1.</leafValues></_>
        <_>
          <internalNodes>
            0 -1 271 -3.2304148771800101e-04</internalNodes>
          <leafValues>
            1. -2.6420367881655693e-02</leafValues></_>
        <_>
          <internalNodes>
            0 -1 187 -2.4872564608813263e-05</internalNodes>
          <leafValues>
            -7.2779941558837891e-01 7.2254620492458344e-02</leafValues></_>
        <_>
          <internalNodes>
            0 -1 370 1.3600238162325695e-05</internalNodes>
          <leafValues>
            -3.3582773059606552e-02 9.7380220890045166e-01</leafValues></_>
        <_>
          <internalNodes>
            0 -1 168 3.4428589046001434e-02</internalNodes>
          <leafValues>
            3.1233314424753189e-02 -1.</leafValues></_>
        <_>
          <internalNodes>
            0 -1 297 -9.6500589279457927e-04</internalNodes>
          <leafValues>
            1. -2.2165242582559586e-02</leafValues></_>
        <_>
          <internalNodes>
            0 -1 53 7.5497111538425088e-04</internalNodes>
          <leafValues>
            2.3209698498249054e-02 -1.</leafValues></_>
        <_>
          <internalNodes>
            0 -1 243 -1.7886934801936150e-04</internalNodes>
          <leafValues>
            1. -8.6683901026844978e-03</leafValues></_>
        <_>
          <internalNodes>
            0 -1 49 -1.7336444579996169e-04</internalNodes>
          <leafValues>
            -1. 9.5382072031497955e-03</leafValues></_>
        <_>
          <internalNodes>
            0 -1 102 -2.6965260040014982e-03</internalNodes>
          <leafValues>
            1. -1.3476902386173606e-03</leafValues></_>
        <_>
          <internalNodes>
            0 -1 282 -6.8364599428605288e-05</internalNodes>
          <leafValues>
            -1. 1.6935124294832349e-03</leafValues></_>
        <_>
          <internalNodes>
            0 -1 159 -2.8981976211071014e-03</internalNodes>
          <leafValues>
            1. -8.4162445273250341e-04</leafValues></_>
        <_>
          <internalNodes>
            0 -1 156 -5.6419818429276347e-04</internalNodes>
          <leafValues>
            -1. 1.1215063277631998e-03</leafValues></_>
        <_>
          <internalNodes>
            0 -1 42 -2.2262018173933029e-03</internalNodes>
          <leafValues>
            1. 4.7022075122526985e-10</leafValues></_>
        <_>
          <internalNodes>
            0 -1 24 -4.9807353207143024e-05</internalNodes>
          <leafValues>
            -1. -4.8834248853101090e-15</leafValues></_>
        <_>
          <internalNodes>
            0 -1 22 -2.2769525821786374e-04</internalNodes>
          <leafValues>
            1. 6.5124339907883695e-15</leafValues></_>
        <_>
          <internalNodes>
            0 -1 13 1.1982581054326147e-04</internalNodes>
          <leafValues>
            -1.5202545643254288e-14 -1.</leafValues></_>
        <_>
          <internalNodes>
            0 -1 5 -5.5528053781017661e-04</internalNodes>
          <leafValues>
            1. 1.3145923548118159e-16</leafValues></_>
        <_>
          <internalNodes>
            0 -1 0 -3.9902509888634086e-04</internalNodes>
          <leafValues>
            -1. -1.2464465689717374e-15</leafValues></_>
        <_>
          <internalNodes>
            0 -1 0 -3.1429537921212614e-04</internalNodes>
          <leafValues>
            1. 6.9188374342656674e-15</leafValues></_>
        <_>
          <internalNodes>
            0 -1 0 -3.9902509888634086e-04</internalNodes>
          <leafValues>
            -1. -3.5555616153274067e-16</leafValues></_>
        <_>
          <internalNodes>
            0 -1 0 -3.1429537921212614e-04</internalNodes>
          <leafValues>
            1. -6.6376199546783980e-15</leafValues></_>
        <_>
          <internalNodes>
            0 -1 0 -3.9902509888634086e-04</internalNodes>
          <leafValues>
            -1. -2.5777821512600352e-17</leafValues></_>
        <_>
          <internalNodes>
            0 -1 0 -3.1429537921212614e-04</internalNodes>
          <leafValues>
            1. 3.7459926213203026e-15</leafValues></_>
        <_>
          <internalNodes>
            0 -1 0 -3.9902509888634086e-04</internalNodes>
          <leafValues>
            -1. -1.9753367371715472e-15</leafValues></_>
        <_>
          <internalNodes>
            0 -1 0 -3.1429537921212614e-04</internalNodes>
          <leafValues>
            1. 7.2107677630533357e-15</leafValues></_>
        <_>
          <internalNodes>
            0 -1 0 -3.9902509888634086e-04</internalNodes>
          <leafValues>
            -1. -4.3044517666591074e-16</leafValues></_>
        <_>
          <internalNodes>
            0 -1 0 -3.1429537921212614e-04</internalNodes>
          <leafValues>
            1. -7.0650255800828662e-15</leafValues></_>
        <_>
          <internalNodes>
            0 -1 0 -3.9902509888634086e-04</internalNodes>
          <leafValues>
            -1. -1.6000027202798881e-17</leafValues></_>
        <_>
          <internalNodes>
            0 -1 0 -3.1429537921212614e-04</internalNodes>
          <leafValues>
            1. 3.5868592709702163e-15</leafValues></_>
        <_>
          <internalNodes>
            0 -1 0 -3.9902509888634086e-04</internalNodes>
          <leafValues>
            -1. -1.0764463153039704e-15</leafValues></_>
        <_>
          <internalNodes>
            0 -1 0 -3.1429537921212614e-04</internalNodes>
          <leafValues>
            1. -6.9831153765010073e-15</leafValues></_>
        <_>
          <internalNodes>
            0 -1 0 -3.9902509888634086e-04</internalNodes>
          <leafValues>
            -1. 1.3472245373328043e-14</leafValues></_>
        <_>
          <internalNodes>
            0 -1 0 -3.1429537921212614e-04</internalNodes>
          <leafValues>
            1. -1.0271125753570382e-14</leafValues></_>
        <_>
          <internalNodes>
            0 -1 0 -3.9902509888634086e-04</internalNodes>
          <leafValues>
            -1. -3.9682290792078870e-15</leafValues></_>
        <_>
          <internalNodes>
            0 -1 0 -3.1429537921212614e-04</internalNodes>
          <leafValues>
            1. 6.5994547676574873e-15</leafValues></_>
        <_>
          <internalNodes>
            0 -1 0 -3.9902509888634086e-04</internalNodes>
          <leafValues>
            -1. -1.3531134280194714e-15</leafValues></_>
        <_>
          <internalNodes>
            0 -1 0 -3.1429537921212614e-04</internalNodes>
          <leafValues>
            1. 7.4393124988155965e-15</leafValues></_>
        <_>
          <internalNodes>
            0 -1 0 -3.9902509888634086e-04</internalNodes>
          <leafValues>
            -1. -4.3111184453495908e-16</leafValues></_>
        <_>
          <internalNodes>
            0 -1 0 -3.1429537921212614e-04</internalNodes>
          <leafValues>
            1. -7.1723793828508235e-15</leafValues></_>
        <_>
          <internalNodes>
            0 -1 0 -3.9902509888634086e-04</internalNodes>
          <leafValues>
            -1. -1.6222249274361252e-17</leafValues></_>
        <_>
          <internalNodes>
            0 -1 0 -3.1429537921212614e-04</internalNodes>
          <leafValues>
            1. 3.5844041459725997e-15</leafValues></_>
        <_>
          <internalNodes>
            0 -1 0 -3.9902509888634086e-04</internalNodes>
          <leafValues>
            -1. -1.0788907465106279e-15</leafValues></_>
        <_>
          <internalNodes>
            0 -1 0 -3.1429537921212614e-04</internalNodes>
          <leafValues>
            1. -6.9833385696826088e-15</leafValues></_>
        <_>
          <internalNodes>
            0 -1 0 -3.9902509888634086e-04</internalNodes>
          <leafValues>
            -1. 1.3472022603662915e-14</leafValues></_>
        <_>
          <internalNodes>
            0 -1 0 -3.1429537921212614e-04</internalNodes>
          <leafValues>
            1. -1.0271794909598713e-14</leafValues></_>
        <_>
          <internalNodes>
            0 -1 0 -3.9902509888634086e-04</internalNodes>
          <leafValues>
            -1. -3.9688956941373761e-15</leafValues></_>
        <_>
          <internalNodes>
            0 -1 0 -3.1429537921212614e-04</internalNodes>
          <leafValues>
            1. 6.5920898161811112e-15</leafValues></_>
        <_>
          <internalNodes>
            0 -1 0 -3.9902509888634086e-04</internalNodes>
          <leafValues>
            -1. -1.3555578592261289e-15</leafValues></_>
        <_>
          <internalNodes>
            0 -1 0 -3.1429537921212614e-04</internalNodes>
          <leafValues>
            1. 7.4386424957543183e-15</leafValues></_>
        <_>
          <internalNodes>
            0 -1 0 -3.9902509888634086e-04</internalNodes>
          <leafValues>
            -1. -4.3355630221139619e-16</leafValues></_>
        <_>
          <internalNodes>
            0 -1 0 -3.1429537921212614e-04</internalNodes>
          <leafValues>
            1. -7.1726021525159514e-15</leafValues></_>
        <_>
          <internalNodes>
            0 -1 0 -3.9902509888634086e-04</internalNodes>
          <leafValues>
            -1. -1.6888917143409590e-17</leafValues></_>
        <_>
          <internalNodes>
            0 -1 0 -3.1429537921212614e-04</internalNodes>
          <leafValues>
            1. 3.5837345664277952e-15</leafValues></_>
        <_>
          <internalNodes>
            0 -1 0 -3.9902509888634086e-04</internalNodes>
          <leafValues>
            -1. -1.0862240401306004e-15</leafValues></_>
        <_>
          <internalNodes>
            0 -1 0 -3.1429537921212614e-04</internalNodes>
          <leafValues>
            1. -6.9857936946802254e-15</leafValues></_>
        <_>
          <internalNodes>
            0 -1 0 -3.9902509888634086e-04</internalNodes>
          <leafValues>
            -1. 1.3464689839438534e-14</leafValues></_>
        <_>
          <internalNodes>
            0 -1 0 -3.1429537921212614e-04</internalNodes>
          <leafValues>
            1. -1.0379148712366670e-14</leafValues></_>
        <_>
          <internalNodes>
            0 -1 0 -3.9902509888634086e-04</internalNodes>
          <leafValues>
            -1. -3.8575621070667445e-15</leafValues></_>
        <_>
          <internalNodes>
            0 -1 0 -3.1429537921212614e-04</internalNodes>
          <leafValues>
            1. 6.5918666229995097e-15</leafValues></_>
        <_>
          <internalNodes>
            0 -1 0 -3.9902509888634086e-04</internalNodes>
          <leafValues>
            -1. -1.3562245800347364e-15</leafValues></_>
        <_>
          <internalNodes>
            0 -1 0 -3.1429537921212614e-04</internalNodes>
          <leafValues>
            1. 7.4384197260891904e-15</leafValues></_>
        <_>
          <internalNodes>
            0 -1 0 -3.9902509888634086e-04</internalNodes>
          <leafValues>
            -1. -4.3355630221139619e-16</leafValues></_>
        <_>
          <internalNodes>
            0 -1 0 -3.1429537921212614e-04</internalNodes>
          <leafValues>
            1. -7.1726021525159514e-15</leafValues></_>
        <_>
          <internalNodes>
            0 -1 0 -3.9902509888634086e-04</internalNodes>
          <leafValues>
            -1. -1.6888917143409590e-17</leafValues></_>
        <_>
          <internalNodes>
            0 -1 0 -3.1429537921212614e-04</internalNodes>
          <leafValues>
            1. 3.5837345664277952e-15</leafValues></_>
        <_>
          <internalNodes>
            0 -1 0 -3.9902509888634086e-04</internalNodes>
          <leafValues>
            -1. -1.0862240401306004e-15</leafValues></_>
        <_>
          <internalNodes>
            0 -1 0 -3.1429537921212614e-04</internalNodes>
          <leafValues>
            1. -6.9857936946802254e-15</leafValues></_>
        <_>
          <internalNodes>
            0 -1 0 -3.9902509888634086e-04</internalNodes>
          <leafValues>
            -1. 1.3464689839438534e-14</leafValues></_>
        <_>
          <internalNodes>
            0 -1 0 -3.1429537921212614e-04</internalNodes>
          <leafValues>
            1. -1.0379148712366670e-14</leafValues></_>
        <_>
          <internalNodes>
            0 -1 0 -3.9902509888634086e-04</internalNodes>
          <leafValues>
            -1. -3.8575621070667445e-15</leafValues></_>
        <_>
          <internalNodes>
            0 -1 0 -3.1429537921212614e-04</internalNodes>
          <leafValues>
            1. 6.5918666229995097e-15</leafValues></_>
        <_>
          <internalNodes>
            0 -1 0 -3.9902509888634086e-04</internalNodes>
          <leafValues>
            -1. -1.3562245800347364e-15</leafValues></_>
        <_>
          <internalNodes>
            0 -1 0 -3.1429537921212614e-04</internalNodes>
          <leafValues>
            1. 7.4384197260891904e-15</leafValues></_>
        <_>
          <internalNodes>
            0 -1 0 -3.9902509888634086e-04</internalNodes>
          <leafValues>
            -1. -4.3355630221139619e-16</leafValues></_>
        <_>
          <internalNodes>
            0 -1 0 -3.1429537921212614e-04</internalNodes>
          <leafValues>
            1. -7.1726021525159514e-15</leafValues></_>
        <_>
          <internalNodes>
            0 -1 0 -3.9902509888634086e-04</internalNodes>
          <leafValues>
            -1. -1.6888917143409590e-17</leafValues></_>
        <_>
          <internalNodes>
            0 -1 0 -3.1429537921212614e-04</internalNodes>
          <leafValues>
            1. 3.5837345664277952e-15</leafValues></_>
        <_>
          <internalNodes>
            0 -1 0 -3.9902509888634086e-04</internalNodes>
          <leafValues>
            -1. -1.0862240401306004e-15</leafValues></_>
        <_>
          <internalNodes>
            0 -1 0 -3.1429537921212614e-04</internalNodes>
          <leafValues>
            1. -6.9857936946802254e-15</leafValues></_>
        <_>
          <internalNodes>
            0 -1 0 -3.9902509888634086e-04</internalNodes>
          <leafValues>
            -1. 1.3464689839438534e-14</leafValues></_>
        <_>
          <internalNodes>
            0 -1 0 -3.1429537921212614e-04</internalNodes>
          <leafValues>
            1. -1.0379148712366670e-14</leafValues></_>
        <_>
          <internalNodes>
            0 -1 0 -3.9902509888634086e-04</internalNodes>
          <leafValues>
            -1. -3.8575621070667445e-15</leafValues></_>
        <_>
          <internalNodes>
            0 -1 0 -3.1429537921212614e-04</internalNodes>
          <leafValues>
            1. 6.5918666229995097e-15</leafValues></_>
        <_>
          <internalNodes>
            0 -1 0 -3.9902509888634086e-04</internalNodes>
          <leafValues>
            -1. -1.3562245800347364e-15</leafValues></_>
        <_>
          <internalNodes>
            0 -1 0 -3.1429537921212614e-04</internalNodes>
          <leafValues>
            1. 7.4384197260891904e-15</leafValues></_>
        <_>
          <internalNodes>
            0 -1 0 -3.9902509888634086e-04</internalNodes>
          <leafValues>
            -1. -4.3355630221139619e-16</leafValues></_>
        <_>
          <internalNodes>
            0 -1 0 -3.1429537921212614e-04</internalNodes>
          <leafValues>
            1. -7.1726021525159514e-15</leafValues></_>
        <_>
          <internalNodes>
            0 -1 0 -3.9902509888634086e-04</internalNodes>
          <leafValues>
            -1. -1.6888917143409590e-17</leafValues></_>
        <_>
          <internalNodes>
            0 -1 0 -3.1429537921212614e-04</internalNodes>
          <leafValues>
            1. 3.5837345664277952e-15</leafValues></_>
        <_>
          <internalNodes>
            0 -1 0 -3.9902509888634086e-04</internalNodes>
          <leafValues>
            -1. -1.0862240401306004e-15</leafValues></_>
        <_>
          <internalNodes>
            0 -1 0 -3.1429537921212614e-04</internalNodes>
          <leafValues>
            1. -6.9857936946802254e-15</leafValues></_>
        <_>
          <internalNodes>
            0 -1 0 -3.9902509888634086e-04</internalNodes>
          <leafValues>
            -1. 1.3464689839438534e-14</leafValues></_>
        <_>
          <internalNodes>
            0 -1 0 -3.1429537921212614e-04</internalNodes>
          <leafValues>
            1. -1.0379148712366670e-14</leafValues></_>
        <_>
          <internalNodes>
            0 -1 0 -3.9902509888634086e-04</internalNodes>
          <leafValues>
            -1. -3.8575621070667445e-15</leafValues></_></weakClassifiers></_>
    <!-- stage 3 -->
    <_>
      <maxWeakCount>100</maxWeakCount>
      <stageThreshold>-2.8924250602722168e+00</stageThreshold>
      <weakClassifiers>
        <_>
          <internalNodes>
            0 -1 347 5.1831608288921416e-05</internalNodes>
          <leafValues>
            -9.8203593492507935e-01 9.3617022037506104e-01</leafValues></_>
        <_>
          <internalNodes>
            0 -1 21 -5.1313400035724044e-04</internalNodes>
          <leafValues>
            8.9364194869995117e-01 -9.3316543102264404e-01</leafValues></_>
        <_>
          <internalNodes>
            0 -1 199 3.4289722680114210e-04</internalNodes>
          <leafValues>
            -7.1133089065551758e-01 9.6684920787811279e-01</leafValues></_>
        <_>
          <internalNodes>
            0 -1 183 3.4268682356923819e-03</internalNodes>
          <leafValues>
            -2.6811754703521729e-01 1.</leafValues></_>
        <_>
          <internalNodes>
            0 -1 359 -2.7477683033794165e-03</internalNodes>
          <leafValues>
            9.7263324260711670e-01 -1.3417975977063179e-02</leafValues></_>
        <_>
          <internalNodes>
            0 -1 236 -2.2724829614162445e-04</internalNodes>
          <leafValues>
            1. -1.9934184849262238e-02</leafValues></_>
        <_>
          <internalNodes>
            0 -1 16 3.7378362321760505e-05</internalNodes>
          <leafValues>
            3.9312310516834259e-02 -9.0948450565338135e-01</leafValues></_>
        <_>
          <internalNodes>
            0 -1 285 -2.5570427533239126e-04</internalNodes>
          <leafValues>
            1. -2.2106803953647614e-02</leafValues></_>
        <_>
          <internalNodes>
            0 -1 136 -1.8576998263597488e-04</internalNodes>
          <leafValues>
            -1. 1.6861971467733383e-02</leafValues></_>
        <_>
          <internalNodes>
            0 -1 198 -4.7714728862047195e-04</internalNodes>
          <leafValues>
            9.5509320497512817e-01 -6.3306270167231560e-03</leafValues></_>
        <_>
          <internalNodes>
            0 -1 362 2.5846104836091399e-04</internalNodes>
          <leafValues>
            8.7137417867779732e-03 -1.</leafValues></_>
        <_>
          <internalNodes>
            0 -1 307 -3.1516660237684846e-04</internalNodes>
          <leafValues>
            1. -5.3191049955785275e-03</leafValues></_>
        <_>
          <internalNodes>
            0 -1 41 -1.6146966663654894e-04</internalNodes>
          <leafValues>
            -1. 4.6726097352802753e-03</leafValues></_>
        <_>
          <internalNodes>
            0 -1 46 -4.5583752216771245e-04</internalNodes>
          <leafValues>
            1. -1.7618236597627401e-03</leafValues></_>
        <_>
          <internalNodes>
            0 -1 52 -2.2750787436962128e-02</internalNodes>
          <leafValues>
            -1. 1.0224931174889207e-03</leafValues></_>
        <_>
          <internalNodes>
            0 -1 48 -1.3986033991386648e-05</internalNodes>
          <leafValues>
            1. 3.5633787587308063e-10</leafValues></_>
        <_>
          <internalNodes>
            0 -1 62 -3.2145392615348101e-03</internalNodes>
          <leafValues>
            -1. 5.1203276962041855e-04</leafValues></_>
        <_>
          <internalNodes>
            0 -1 45 -1.8076685955747962e-04</internalNodes>
          <leafValues>
            1. 4.4753901973226817e-11</leafValues></_>
        <_>
          <internalNodes>
            0 -1 14 3.7153996527194977e-04</internalNodes>
          <leafValues>
            -1.2142867820193887e-14 -1.</leafValues></_>
        <_>
          <internalNodes>
            0 -1 11 2.3324224457610399e-04</internalNodes>
          <leafValues>
            6.6286968860955475e-15 1.</leafValues></_>
        <_>
          <internalNodes>
            0 -1 8 6.9342239294201136e-04</internalNodes>
          <leafValues>
            1.0230618096933840e-14 -1.</leafValues></_>
        <_>
          <internalNodes>
            0 -1 6 7.1116164326667786e-04</internalNodes>
          <leafValues>
            2.8726717418501690e-16 1.</leafValues></_>
        <_>
          <internalNodes>
            0 -1 0 2.1810256876051426e-03</internalNodes>
          <leafValues>
            -2.2013107279388912e-14 -1.</leafValues></_>
        <_>
          <internalNodes>
            0 -1 0 1.2358945095911622e-03</internalNodes>
          <leafValues>
            1.7480835572472597e-14 1.</leafValues></_>
        <_>
          <internalNodes>
            0 -1 0 1.0517179034650326e-03</internalNodes>
          <leafValues>
            -2.1904104726989124e-15 -1.</leafValues></_>
        <_>
          <internalNodes>
            0 -1 0 1.2358945095911622e-03</internalNodes>
          <leafValues>
            3.1593880005123358e-15 1.</leafValues></_>
        <_>
          <internalNodes>
            0 -1 0 1.0517179034650326e-03</internalNodes>
          <leafValues>
            -1.7799516472283977e-15 -1.</leafValues></_>
        <_>
          <internalNodes>
            0 -1 0 1.2358945095911622e-03</internalNodes>
          <leafValues>
            -2.9861115292837076e-15 1.</leafValues></_>
        <_>
          <internalNodes>
            0 -1 0 1.0517179034650326e-03</internalNodes>
          <leafValues>
            1.0974520971211666e-15 -1.</leafValues></_>
        <_>
          <internalNodes>
            0 -1 0 1.2358945095911622e-03</internalNodes>
          <leafValues>
            -1.0991750044875293e-14 1.</leafValues></_>
        <_>
          <internalNodes>
            0 -1 0 1.0517179034650326e-03</internalNodes>
          <leafValues>
            1.2217879363936833e-14 -1.</leafValues></_>
        <_>
          <internalNodes>
            0 -1 0 5.8799271937459707e-04</internalNodes>
          <leafValues>
            -2.1060889780744572e-15 1.</leafValues></_>
        <_>
          <internalNodes>
            0 -1 0 1.0517179034650326e-03</internalNodes>
          <leafValues>
            -9.3659965105298039e-15 -1.</leafValues></_>
        <_>
          <internalNodes>
            0 -1 0 5.8799271937459707e-04</internalNodes>
          <leafValues>
            9.3668266028181131e-15 1.</leafValues></_>
        <_>
          <internalNodes>
            0 -1 0 1.0517179034650326e-03</internalNodes>
          <leafValues>
            4.8594043014753979e-15 -1.</leafValues></_>
        <_>
          <internalNodes>
            0 -1 0 5.8799271937459707e-04</internalNodes>
          <leafValues>
            -1.6191835232901106e-15 1.</leafValues></_>
        <_>
          <internalNodes>
            0 -1 0 1.0517179034650326e-03</internalNodes>
          <leafValues>
            -1.0582362080808344e-14 -1.</leafValues></_>
        <_>
          <internalNodes>
            0 -1 0 5.8799271937459707e-04</internalNodes>
          <leafValues>
            -9.8971810361483427e-15 1.</leafValues></_>
        <_>
          <internalNodes>
            0 -1 0 1.0517179034650326e-03</internalNodes>
          <leafValues>
            1.5520672583518164e-14 -1.</leafValues></_>
        <_>
          <internalNodes>
            0 -1 0 5.8799271937459707e-04</internalNodes>
          <leafValues>
            -5.3314989616605295e-15 1.</leafValues></_>
        <_>
          <internalNodes>
            0 -1 0 1.0517179034650326e-03</internalNodes>
          <leafValues>
            8.5617336449141622e-15 -1.</leafValues></_>
        <_>
          <internalNodes>
            0 -1 0 5.8799271937459707e-04</internalNodes>
          <leafValues>
            -1.0262389455752401e-14 1.</leafValues></_>
        <_>
          <internalNodes>
            0 -1 0 1.0517179034650326e-03</internalNodes>
          <leafValues>
            1.1997913377864364e-14 -1.</leafValues></_>
        <_>
          <internalNodes>
            0 -1 0 5.8799271937459707e-04</internalNodes>
          <leafValues>
            -3.9669221073702736e-15 1.</leafValues></_>
        <_>
          <internalNodes>
            0 -1 0 1.0517179034650326e-03</internalNodes>
          <leafValues>
            -9.4648952304182687e-15 -1.</leafValues></_>
        <_>
          <internalNodes>
            0 -1 0 5.8799271937459707e-04</internalNodes>
          <leafValues>
            4.2110721546362740e-15 1.</leafValues></_>
        <_>
          <internalNodes>
            0 -1 0 1.0517179034650326e-03</internalNodes>
          <leafValues>
            -3.3623068132466018e-15 -1.</leafValues></_>
        <_>
          <internalNodes>
            0 -1 0 5.8799271937459707e-04</internalNodes>
          <leafValues>
            -3.0308549859312320e-15 1.</leafValues></_>
        <_>
          <internalNodes>
            0 -1 0 1.0517179034650326e-03</internalNodes>
          <leafValues>
            -4.1161710067423758e-15 -1.</leafValues></_>
        <_>
          <internalNodes>
            0 -1 0 5.8799271937459707e-04</internalNodes>
          <leafValues>
            2.0970501200877172e-14 1.</leafValues></_>
        <_>
          <internalNodes>
            0 -1 0 1.0517179034650326e-03</internalNodes>
          <leafValues>
            -1.7523146562253844e-14 -1.</leafValues></_>
        <_>
          <internalNodes>
            0 -1 0 5.8799271937459707e-04</internalNodes>
          <leafValues>
            -1.6519044060425443e-15 1.</leafValues></_>
        <_>
          <internalNodes>
            0 -1 0 1.0517179034650326e-03</internalNodes>
          <leafValues>
            1.6093282102455121e-14 -1.</leafValues></_>
        <_>
          <internalNodes>
            0 -1 0 5.8799271937459707e-04</internalNodes>
          <leafValues>
            -1.4673501146376987e-15 1.</leafValues></_>
        <_>
          <internalNodes>
            0 -1 0 1.0517179034650326e-03</internalNodes>
          <leafValues>
            -9.9243343713384738e-15 -1.</leafValues></_>
        <_>
          <internalNodes>
            0 -1 0 5.8799271937459707e-04</internalNodes>
          <leafValues>
            1.3411088747503335e-14 1.</leafValues></_>
        <_>
          <internalNodes>
            0 -1 0 1.0517179034650326e-03</internalNodes>
          <leafValues>
            -1.6117613970897948e-14 -1.</leafValues></_>
        <_>
          <internalNodes>
            0 -1 0 5.8799271937459707e-04</internalNodes>
          <leafValues>
            3.7147908921587695e-15 1.</leafValues></_>
        <_>
          <internalNodes>
            0 -1 0 1.0517179034650326e-03</internalNodes>
          <leafValues>
            1.2780304158716005e-14 -1.</leafValues></_>
        <_>
          <internalNodes>
            0 -1 0 5.8799271937459707e-04</internalNodes>
          <leafValues>
            -1.8972972200487562e-14 1.</leafValues></_>
        <_>
          <internalNodes>
            0 -1 0 1.0517179034650326e-03</internalNodes>
          <leafValues>
            5.4184011539170317e-15 -1.</leafValues></_>
        <_>
          <internalNodes>
            0 -1 0 5.8799271937459707e-04</internalNodes>
          <leafValues>
            -1.2692810949220556e-15 1.</leafValues></_>
        <_>
          <internalNodes>
            0 -1 0 1.0517179034650326e-03</internalNodes>
          <leafValues>
            1.5605967954273724e-15 -1.</leafValues></_>
        <_>
          <internalNodes>
            0 -1 0 5.8799271937459707e-04</internalNodes>
          <leafValues>
            1.2431821251688430e-14 1.</leafValues></_>
        <_>
          <internalNodes>
            0 -1 0 1.0517179034650326e-03</internalNodes>
          <leafValues>
            1.3781032822436374e-16 -1.</leafValues></_>
        <_>
          <internalNodes>
            0 -1 0 5.8799271937459707e-04</internalNodes>
          <leafValues>
            -1.5505436154862953e-14 1.</leafValues></_>
        <_>
          <internalNodes>
            0 -1 0 1.0517179034650326e-03</internalNodes>
          <leafValues>
            1.5565931247955855e-14 -1.</leafValues></_>
        <_>
          <internalNodes>
            0 -1 0 5.8799271937459707e-04</internalNodes>
          <leafValues>
            -1.4413397233549452e-14 1.</leafValues></_>
        <_>
          <internalNodes>
            0 -1 0 1.0517179034650326e-03</internalNodes>
          <leafValues>
            1.0139787365867972e-14 -1.</leafValues></_>
        <_>
          <internalNodes>
            0 -1 0 5.8799271937459707e-04</internalNodes>
          <leafValues>
            -8.0104956142693778e-15 1.</leafValues></_>
        <_>
          <internalNodes>
            0 -1 0 1.0517179034650326e-03</internalNodes>
          <leafValues>
            -3.5768748171648970e-16 -1.</leafValues></_>
        <_>
          <internalNodes>
            0 -1 0 5.8799271937459707e-04</internalNodes>
          <leafValues>
            4.6508550489824958e-15 1.</leafValues></_>
        <_>
          <internalNodes>
            0 -1 0 1.0517179034650326e-03</internalNodes>
          <leafValues>
            -5.9138989109183259e-15 -1.</leafValues></_>
        <_>
          <internalNodes>
            0 -1 0 5.8799271937459707e-04</internalNodes>
          <leafValues>
            1.1691832093143392e-14 1.</leafValues></_>
        <_>
          <internalNodes>
            0 -1 0 1.0517179034650326e-03</internalNodes>
          <leafValues>
            3.1532683992266603e-15 -1.</leafValues></_>
        <_>
          <internalNodes>
            0 -1 0 5.8799271937459707e-04</internalNodes>
          <leafValues>
            2.2793444852376409e-15 1.</leafValues></_>
        <_>
          <internalNodes>
            0 -1 0 1.0517179034650326e-03</internalNodes>
          <leafValues>
            -2.3769958644079790e-14 -1.</leafValues></_>
        <_>
          <internalNodes>
            0 -1 0 5.8799271937459707e-04</internalNodes>
          <leafValues>
            2.2218956614362441e-14 1.</leafValues></_>
        <_>
          <internalNodes>
            0 -1 0 1.0517179034650326e-03</internalNodes>
          <leafValues>
            -1.6468002702056846e-14 -1.</leafValues></_>
        <_>
          <internalNodes>
            0 -1 0 5.8799271937459707e-04</internalNodes>
          <leafValues>
            -3.1976844776400708e-15 1.</leafValues></_>
        <_>
          <internalNodes>
            0 -1 0 1.0517179034650326e-03</internalNodes>
          <leafValues>
            1.9039060252131184e-15 -1.</leafValues></_>
        <_>
          <internalNodes>
            0 -1 0 5.8799271937459707e-04</internalNodes>
          <leafValues>
            1.9140024461861528e-15 1.</leafValues></_>
        <_>
          <internalNodes>
            0 -1 0 1.0517179034650326e-03</internalNodes>
          <leafValues>
            2.8747720129824452e-15 -1.</leafValues></_>
        <_>
          <internalNodes>
            0 -1 0 5.8799271937459707e-04</internalNodes>
          <leafValues>
            -3.5873975604081964e-15 1.</leafValues></_>
        <_>
          <internalNodes>
            0 -1 0 1.0517179034650326e-03</internalNodes>
          <leafValues>
            -1.0155493050775961e-15 -1.</leafValues></_>
        <_>
          <internalNodes>
            0 -1 0 5.8799271937459707e-04</internalNodes>
          <leafValues>
            7.5328254655880633e-17 1.</leafValues></_>
        <_>
          <internalNodes>
            0 -1 0 1.0517179034650326e-03</internalNodes>
          <leafValues>
            -1.5572788085542997e-16 -1.</leafValues></_>
        <_>
          <internalNodes>
            0 -1 0 5.8799271937459707e-04</internalNodes>
          <leafValues>
            4.1497007000803189e-16 1.</leafValues></_>
        <_>
          <internalNodes>
            0 -1 0 1.0517179034650326e-03</internalNodes>
          <leafValues>
            3.7604743204584522e-18 -1.</leafValues></_>
        <_>
          <internalNodes>
            0 -1 0 5.8799271937459707e-04</internalNodes>
          <leafValues>
            3.8550343489939009e-16 1.</leafValues></_>
        <_>
          <internalNodes>
            0 -1 0 1.0517179034650326e-03</internalNodes>
          <leafValues>
            3.0968613121303340e-17 -1.</leafValues></_>
        <_>
          <internalNodes>
            0 -1 0 5.8799271937459707e-04</internalNodes>
          <leafValues>
            4.3225126266769373e-16 1.</leafValues></_>
        <_>
          <internalNodes>
            0 -1 0 1.0517179034650326e-03</internalNodes>
          <leafValues>
            2.1014415928430036e-17 -1.</leafValues></_>
        <_>
          <internalNodes>
            0 -1 0 5.8799271937459707e-04</internalNodes>
          <leafValues>
            4.2892795536892108e-16 1.</leafValues></_>
        <_>
          <internalNodes>
            0 -1 0 1.0517179034650326e-03</internalNodes>
          <leafValues>
            1.7696349646018526e-17 -1.</leafValues></_>
        <_>
          <internalNodes>
            0 -1 0 5.8799271937459707e-04</internalNodes>
          <leafValues>
            -1.3957883706527966e-17 1.</leafValues></_>
        <_>
          <internalNodes>
            0 -1 0 1.0517179034650326e-03</internalNodes>
          <leafValues>
            1.3095298771140934e-16 -1.</leafValues></_>
        <_>
          <internalNodes>
            0 -1 0 5.8799271937459707e-04</internalNodes>
          <leafValues>
            -1.4179437416155394e-17 1.</leafValues></_>
        <_>
          <internalNodes>
            0 -1 0 1.0517179034650326e-03</internalNodes>
          <leafValues>
            -3.0813769542844844e-16 -1.</leafValues></_>
        <_>
          <internalNodes>
            0 -1 0 5.8799271937459707e-04</internalNodes>
          <leafValues>
            4.5861616238516379e-17 1.</leafValues></_></weakClassifiers></_>
    <!-- stage 4 -->
    <_>
      <maxWeakCount>100</maxWeakCount>
      <stageThreshold>-2.6137685775756836e+00</stageThreshold>
      <weakClassifiers>
        <_>
          <internalNodes>
            0 -1 178 -3.3993178512901068e-03</internalNodes>
          <leafValues>
            5.6521737575531006e-01 -9.4422310590744019e-01</leafValues></_>
        <_>
          <internalNodes>
            0 -1 104 -8.2213552668690681e-03</internalNodes>
          <leafValues>
            5.7334268093109131e-01 -8.4725540876388550e-01</leafValues></_>
        <_>
          <internalNodes>
            0 -1 372 -4.8026046715676785e-03</internalNodes>
          <leafValues>
            8.5968071222305298e-01 -5.4100459814071655e-01</leafValues></_>
        <_>
          <internalNodes>
            0 -1 369 -2.6689721271395683e-03</internalNodes>
          <leafValues>
            7.0468682050704956e-01 -3.9810752868652344e-01</leafValues></_>
        <_>
          <internalNodes>
            0 -1 51 4.1664946824312210e-02</internalNodes>
          <leafValues>
            2.2963380813598633e-01 -9.8023426532745361e-01</leafValues></_>
        <_>
          <internalNodes>
            0 -1 277 -5.4919850081205368e-03</internalNodes>
          <leafValues>
            8.1168115139007568e-01 -2.5748196244239807e-01</leafValues></_>
        <_>
          <internalNodes>
            0 -1 93 -4.3549243360757828e-02</internalNodes>
          <leafValues>
            -9.5283085107803345e-01 2.0530942082405090e-01</leafValues></_>
        <_>
          <internalNodes>
            0 -1 350 1.4220499433577061e-03</internalNodes>
          <leafValues>
            -2.0363257825374603e-01 8.7998121976852417e-01</leafValues></_>
        <_>
          <internalNodes>
            0 -1 313 2.2463805973529816e-02</internalNodes>
          <leafValues>
            1.6085816919803619e-01 -9.8042333126068115e-01</leafValues></_>
        <_>
          <internalNodes>
            0 -1 351 -1.5526504721492529e-03</internalNodes>
          <leafValues>
            8.2338047027587891e-01 -1.4188212156295776e-01</leafValues></_>
        <_>
          <internalNodes>
            0 -1 385 -6.6716704168356955e-05</internalNodes>
          <leafValues>
            -7.9128330945968628e-01 1.5195403993129730e-01</leafValues></_>
        <_>
          <internalNodes>
            0 -1 251 -5.8392679784446955e-04</internalNodes>
          <leafValues>
            9.0378499031066895e-01 -9.0266734361648560e-02</leafValues></_>
        <_>
          <internalNodes>
            0 -1 311 -1.0839928872883320e-03</internalNodes>
          <leafValues>
            -8.6237424612045288e-01 7.9028107225894928e-02</leafValues></_>
        <_>
          <internalNodes>
            0 -1 213 -2.3819627240300179e-03</internalNodes>
          <leafValues>
            8.4595429897308350e-01 -6.9623365998268127e-02</leafValues></_>
        <_>
          <internalNodes>
            0 -1 238 1.8452754011377692e-04</internalNodes>
          <leafValues>
            6.5646871924400330e-02 -8.9905667304992676e-01</leafValues></_>
        <_>
          <internalNodes>
            0 -1 345 1.1983168078586459e-03</internalNodes>
          <leafValues>
            -4.6232525259256363e-02 9.7857248783111572e-01</leafValues></_>
        <_>
          <internalNodes>
            0 -1 208 1.0128236375749111e-02</internalNodes>
          <leafValues>
            4.3598297983407974e-02 -9.3500626087188721e-01</leafValues></_>
        <_>
          <internalNodes>
            0 -1 331 -1.2165450025349855e-03</internalNodes>
          <leafValues>
            9.7328209877014160e-01 -3.2473724335432053e-02</leafValues></_>
        <_>
          <internalNodes>
            0 -1 87 -2.7604993432760239e-02</internalNodes>
          <leafValues>
            -9.6678829193115234e-01 3.0258934944868088e-02</leafValues></_>
        <_>
          <internalNodes>
            0 -1 377 2.8306832973612472e-05</internalNodes>
          <leafValues>
            -2.8822772204875946e-02 8.5179650783538818e-01</leafValues></_>
        <_>
          <internalNodes>
            0 -1 56 1.1379281058907509e-03</internalNodes>
          <leafValues>
            2.4439884349703789e-02 -1.</leafValues></_>
        <_>
          <internalNodes>
            0 -1 296 1.1612694943323731e-03</internalNodes>
          <leafValues>
            -1.7538359388709068e-02 8.6724865436553955e-01</leafValues></_>
        <_>
          <internalNodes>
            0 -1 216 -2.7601223438978195e-02</internalNodes>
          <leafValues>
            -9.1388344764709473e-01 1.1896694079041481e-02</leafValues></_>
        <_>
          <internalNodes>
            0 -1 330 -1.1487862793728709e-03</internalNodes>
          <leafValues>
            1. -7.6686181128025055e-03</leafValues></_>
        <_>
          <internalNodes>
            0 -1 249 1.2177808675915003e-03</internalNodes>
          <leafValues>
            1.1577595956623554e-02 -9.5088720321655273e-01</leafValues></_>
        <_>
          <internalNodes>
            0 -1 246 -8.2488218322396278e-04</internalNodes>
          <leafValues>
            1. -5.6930370628833771e-03</leafValues></_>
        <_>
          <internalNodes>
            0 -1 259 -6.6810671705752611e-04</internalNodes>
          <leafValues>
            -1. 2.4721126537770033e-03</leafValues></_>
        <_>
          <internalNodes>
            0 -1 248 -2.6067695580422878e-03</internalNodes>
          <leafValues>
            1. -5.3801323520019650e-04</leafValues></_>
        <_>
          <internalNodes>
            0 -1 202 -1.0332232341170311e-03</internalNodes>
          <leafValues>
            -1. 1.9935825839638710e-03</leafValues></_>
        <_>
          <internalNodes>
            0 -1 37 -7.1031518746167421e-04</internalNodes>
          <leafValues>
            1. 8.3898648881586269e-06</leafValues></_>
        <_>
          <internalNodes>
            0 -1 37 -6.4528576331213117e-04</internalNodes>
          <leafValues>
            -1. 1.5108939260244370e-03</leafValues></_>
        <_>
          <internalNodes>
            0 -1 37 -7.1031518746167421e-04</internalNodes>
          <leafValues>
            1. -1.5108927618712187e-03</leafValues></_>
        <_>
          <internalNodes>
            0 -1 37 -6.4528576331213117e-04</internalNodes>
          <leafValues>
            -1. 1.5108927618712187e-03</leafValues></_>
        <_>
          <internalNodes>
            0 -1 37 -7.1031518746167421e-04</internalNodes>
          <leafValues>
            1. -1.5108927618712187e-03</leafValues></_>
        <_>
          <internalNodes>
            0 -1 37 -6.4528576331213117e-04</internalNodes>
          <leafValues>
            -1. 1.5108927618712187e-03</leafValues></_>
        <_>
          <internalNodes>
            0 -1 37 -7.1031518746167421e-04</internalNodes>
          <leafValues>
            1. -1.5108927618712187e-03</leafValues></_>
        <_>
          <internalNodes>
            0 -1 37 -6.4528576331213117e-04</internalNodes>
          <leafValues>
            -1. 1.5108927618712187e-03</leafValues></_>
        <_>
          <internalNodes>
            0 -1 37 -7.1031518746167421e-04</internalNodes>
          <leafValues>
            1. -1.5108927618712187e-03</leafValues></_>
        <_>
          <internalNodes>
            0 -1 37 -6.4528576331213117e-04</internalNodes>
          <leafValues>
            -1. 1.5108927618712187e-03</leafValues></_>
        <_>
          <internalNodes>
            0 -1 37 -7.1031518746167421e-04</internalNodes>
          <leafValues>
            1. -1.5108927618712187e-03</leafValues></_>
        <_>
          <internalNodes>
            0 -1 37 -6.4528576331213117e-04</internalNodes>
          <leafValues>
            -1. 1.5108927618712187e-03</leafValues></_>
        <_>
          <internalNodes>
            0 -1 37 -7.1031518746167421e-04</internalNodes>
          <leafValues>
            1. -1.5108927618712187e-03</leafValues></_>
        <_>
          <internalNodes>
            0 -1 37 -6.4528576331213117e-04</internalNodes>
          <leafValues>
            -1. 1.5108927618712187e-03</leafValues></_>
        <_>
          <internalNodes>
            0 -1 37 -7.1031518746167421e-04</internalNodes>
          <leafValues>
            1. -1.5108927618712187e-03</leafValues></_>
        <_>
          <internalNodes>
            0 -1 37 -6.4528576331213117e-04</internalNodes>
          <leafValues>
            -1. 1.5108927618712187e-03</leafValues></_>
        <_>
          <internalNodes>
            0 -1 37 -7.1031518746167421e-04</internalNodes>
          <leafValues>
            1. -1.5108927618712187e-03</leafValues></_>
        <_>
          <internalNodes>
            0 -1 37 -6.4528576331213117e-04</internalNodes>
          <leafValues>
            -1. 1.5108927618712187e-03</leafValues></_>
        <_>
          <internalNodes>
            0 -1 37 -7.1031518746167421e-04</internalNodes>
          <leafValues>
            1. -1.5108927618712187e-03</leafValues></_>
        <_>
          <internalNodes>
            0 -1 37 -6.4528576331213117e-04</internalNodes>
          <leafValues>
            -1. 1.5108927618712187e-03</leafValues></_>
        <_>
          <internalNodes>
            0 -1 37 -7.1031518746167421e-04</internalNodes>
          <leafValues>
            1. -1.5108927618712187e-03</leafValues></_>
        <_>
          <internalNodes>
            0 -1 37 -6.4528576331213117e-04</internalNodes>
          <leafValues>
            -1. 1.5108927618712187e-03</leafValues></_>
        <_>
          <internalNodes>
            0 -1 37 -7.1031518746167421e-04</internalNodes>
          <leafValues>
            1. -1.5108927618712187e-03</leafValues></_>
        <_>
          <internalNodes>
            0 -1 37 -6.4528576331213117e-04</internalNodes>
          <leafValues>
            -1. 1.5108927618712187e-03</leafValues></_>
        <_>
          <internalNodes>
            0 -1 37 -7.1031518746167421e-04</internalNodes>
          <leafValues>
            1. -1.5108927618712187e-03</leafValues></_>
        <_>
          <internalNodes>
            0 -1 37 -6.4528576331213117e-04</internalNodes>
          <leafValues>
            -1. 1.5108927618712187e-03</leafValues></_>
        <_>
          <internalNodes>
            0 -1 37 -7.1031518746167421e-04</internalNodes>
          <leafValues>
            1. -1.5108927618712187e-03</leafValues></_>
        <_>
          <internalNodes>
            0 -1 37 -6.4528576331213117e-04</internalNodes>
          <leafValues>
            -1. 1.5108927618712187e-03</leafValues></_>
        <_>
          <internalNodes>
            0 -1 37 -7.1031518746167421e-04</internalNodes>
          <leafValues>
            1. -1.5108927618712187e-03</leafValues></_>
        <_>
          <internalNodes>
            0 -1 37 -6.4528576331213117e-04</internalNodes>
          <leafValues>
            -1. 1.5108927618712187e-03</leafValues></_>
        <_>
          <internalNodes>
            0 -1 37 -7.1031518746167421e-04</internalNodes>
          <leafValues>
            1. -1.5108927618712187e-03</leafValues></_>
        <_>
          <internalNodes>
            0 -1 37 -6.4528576331213117e-04</internalNodes>
          <leafValues>
            -1. 1.5108927618712187e-03</leafValues></_>
        <_>
          <internalNodes>
            0 -1 37 -7.1031518746167421e-04</internalNodes>
          <leafValues>
            1. -1.5108927618712187e-03</leafValues></_>
        <_>
          <internalNodes>
            0 -1 37 -6.4528576331213117e-04</internalNodes>
          <leafValues>
            -1. 1.5108927618712187e-03</leafValues></_>
        <_>
          <internalNodes>
            0 -1 37 -7.1031518746167421e-04</internalNodes>
          <leafValues>
            1. -1.5108927618712187e-03</leafValues></_>
        <_>
          <internalNodes>
            0 -1 37 -6.4528576331213117e-04</internalNodes>
          <leafValues>
            -1. 1.5108927618712187e-03</leafValues></_>
        <_>
          <internalNodes>
            0 -1 37 -7.1031518746167421e-04</internalNodes>
          <leafValues>
            1. -1.5108927618712187e-03</leafValues></_>
        <_>
          <internalNodes>
            0 -1 37 -6.4528576331213117e-04</internalNodes>
          <leafValues>
            -1. 1.5108927618712187e-03</leafValues></_>
        <_>
          <internalNodes>
            0 -1 37 -7.1031518746167421e-04</internalNodes>
          <leafValues>
            1. -1.5108927618712187e-03</leafValues></_>
        <_>
          <internalNodes>
            0 -1 37 -6.4528576331213117e-04</internalNodes>
          <leafValues>
            -1. 1.5108927618712187e-03</leafValues></_>
        <_>
          <internalNodes>
            0 -1 37 -7.1031518746167421e-04</internalNodes>
          <leafValues>
            1. -1.5108927618712187e-03</leafValues></_>
        <_>
          <internalNodes>
            0 -1 37 -6.4528576331213117e-04</internalNodes>
          <leafValues>
            -1. 1.5108927618712187e-03</leafValues></_>
        <_>
          <internalNodes>
            0 -1 37 -7.1031518746167421e-04</internalNodes>
          <leafValues>
            1. -1.5108927618712187e-03</leafValues></_>
        <_>
          <internalNodes>
            0 -1 37 -6.4528576331213117e-04</internalNodes>
          <leafValues>
            -1. 1.5108927618712187e-03</leafValues></_>
        <_>
          <internalNodes>
            0 -1 37 -7.1031518746167421e-04</internalNodes>
          <leafValues>
            1. -1.5108927618712187e-03</leafValues></_>
        <_>
          <internalNodes>
            0 -1 37 -6.4528576331213117e-04</internalNodes>
          <leafValues>
            -1. 1.5108927618712187e-03</leafValues></_>
        <_>
          <internalNodes>
            0 -1 37 -7.1031518746167421e-04</internalNodes>
          <leafValues>
            1. -1.5108927618712187e-03</leafValues></_>
        <_>
          <internalNodes>
            0 -1 37 -6.4528576331213117e-04</internalNodes>
          <leafValues>
            -1. 1.5108927618712187e-03</leafValues></_>
        <_>
          <internalNodes>
            0 -1 37 -7.1031518746167421e-04</internalNodes>
          <leafValues>
            1. -1.5108927618712187e-03</leafValues></_>
        <_>
          <internalNodes>
            0 -1 37 -6.4528576331213117e-04</internalNodes>
          <leafValues>
            -1. 1.5108927618712187e-03</leafValues></_>
        <_>
          <internalNodes>
            0 -1 37 -7.1031518746167421e-04</internalNodes>
          <leafValues>
            1. -1.5108927618712187e-03</leafValues></_>
        <_>
          <internalNodes>
            0 -1 37 -6.4528576331213117e-04</internalNodes>
          <leafValues>
            -1. 1.5108927618712187e-03</leafValues></_>
        <_>
          <internalNodes>
            0 -1 37 -7.1031518746167421e-04</internalNodes>
          <leafValues>
            1. -1.5108927618712187e-03</leafValues></_>
        <_>
          <internalNodes>
            0 -1 37 -6.4528576331213117e-04</internalNodes>
          <leafValues>
            -1. 1.5108927618712187e-03</leafValues></_>
        <_>
          <internalNodes>
            0 -1 37 -7.1031518746167421e-04</internalNodes>
          <leafValues>
            1. -1.5108927618712187e-03</leafValues></_>
        <_>
          <internalNodes>
            0 -1 37 -6.4528576331213117e-04</internalNodes>
          <leafValues>
            -1. 1.5108927618712187e-03</leafValues></_>
        <_>
          <internalNodes>
            0 -1 37 -7.1031518746167421e-04</internalNodes>
          <leafValues>
            1. -1.5108927618712187e-03</leafValues></_>
        <_>
          <internalNodes>
            0 -1 37 -6.4528576331213117e-04</internalNodes>
          <leafValues>
            -1. 1.5108927618712187e-03</leafValues></_>
        <_>
          <internalNodes>
            0 -1 37 -7.1031518746167421e-04</internalNodes>
          <leafValues>
            1. -1.5108927618712187e-03</leafValues></_>
        <_>
          <internalNodes>
            0 -1 37 -6.4528576331213117e-04</internalNodes>
          <leafValues>
            -1. 1.5108927618712187e-03</leafValues></_>
        <_>
          <internalNodes>
            0 -1 37 -7.1031518746167421e-04</internalNodes>
          <leafValues>
            1. -1.5108927618712187e-03</leafValues></_>
        <_>
          <internalNodes>
            0 -1 37 -6.4528576331213117e-04</internalNodes>
          <leafValues>
            -1. 1.5108927618712187e-03</leafValues></_>
        <_>
          <internalNodes>
            0 -1 37 -7.1031518746167421e-04</internalNodes>
          <leafValues>
            1. -1.5108927618712187e-03</leafValues></_>
        <_>
          <internalNodes>
            0 -1 37 -6.4528576331213117e-04</internalNodes>
          <leafValues>
            -1. 1.5108927618712187e-03</leafValues></_>
        <_>
          <internalNodes>
            0 -1 37 -7.1031518746167421e-04</internalNodes>
          <leafValues>
            1. -1.5108927618712187e-03</leafValues></_>
        <_>
          <internalNodes>
            0 -1 37 -6.4528576331213117e-04</internalNodes>
          <leafValues>
            -1. 1.5108927618712187e-03</leafValues></_>
        <_>
          <internalNodes>
            0 -1 37 -7.1031518746167421e-04</internalNodes>
          <leafValues>
            1. -1.5108927618712187e-03</leafValues></_>
        <_>
          <internalNodes>
            0 -1 37 -6.4528576331213117e-04</internalNodes>
          <leafValues>
            -1. 1.5108927618712187e-03</leafValues></_>
        <_>
          <internalNodes>
            0 -1 37 -7.1031518746167421e-04</internalNodes>
          <leafValues>
            1. -1.5108927618712187e-03</leafValues></_>
        <_>
          <internalNodes>
            0 -1 37 -6.4528576331213117e-04</internalNodes>
          <leafValues>
            -1. 1.5108927618712187e-03</leafValues></_>
        <_>
          <internalNodes>
            0 -1 37 -7.1031518746167421e-04</internalNodes>
          <leafValues>
            1. -1.5108927618712187e-03</leafValues></_></weakClassifiers></_>
    <!-- stage 5 -->
    <_>
      <maxWeakCount>100</maxWeakCount>
      <stageThreshold>-2.6001555919647217e+00</stageThreshold>
      <weakClassifiers>
        <_>
          <internalNodes>
            0 -1 363 7.4012279510498047e-02</internalNodes>
          <leafValues>
            -9.1304349899291992e-01 3.3333334326744080e-01</leafValues></_>
        <_>
          <internalNodes>
            0 -1 170 -2.3246938362717628e-03</internalNodes>
          <leafValues>
            5.5043423175811768e-01 -7.8983151912689209e-01</leafValues></_>
        <_>
          <internalNodes>
            0 -1 270 -6.2407488003373146e-03</internalNodes>
          <leafValues>
            3.6252564191818237e-01 -7.5245118141174316e-01</leafValues></_>
        <_>
          <internalNodes>
            0 -1 378 6.6521642729640007e-03</internalNodes>
          <leafValues>
            -3.5313963890075684e-01 6.4393043518066406e-01</leafValues></_>
        <_>
          <internalNodes>
            0 -1 121 6.0852333263028413e-05</internalNodes>
          <leafValues>
            2.2981537878513336e-01 -9.1115981340408325e-01</leafValues></_>
        <_>
          <internalNodes>
            0 -1 172 -2.2886823862791061e-02</internalNodes>
          <leafValues>
            -1. 1.5317006409168243e-01</leafValues></_>
        <_>
          <internalNodes>
            0 -1 217 -1.9532341510057449e-02</internalNodes>
          <leafValues>
            8.6801755428314209e-01 -2.5457069277763367e-01</leafValues></_>
        <_>
          <internalNodes>
            0 -1 386 -1.4844356337562203e-04</internalNodes>
          <leafValues>
            -8.9337176084518433e-01 2.2610251605510712e-01</leafValues></_>
        <_>
          <internalNodes>
            0 -1 229 -3.4296652302145958e-03</internalNodes>
          <leafValues>
            9.1554862260818481e-01 -1.9512106478214264e-01</leafValues></_>
        <_>
          <internalNodes>
            0 -1 186 -3.7405687180580571e-05</internalNodes>
          <leafValues>
            -9.5973426103591919e-01 1.5498912334442139e-01</leafValues></_>
        <_>
          <internalNodes>
            0 -1 166 -4.4364714995026588e-03</internalNodes>
          <leafValues>
            8.1391888856887817e-01 -1.6655680537223816e-01</leafValues></_>
        <_>
          <internalNodes>
            0 -1 96 5.8168387040495872e-03</internalNodes>
          <leafValues>
            1.3174116611480713e-01 -8.5911417007446289e-01</leafValues></_>
        <_>
          <internalNodes>
            0 -1 366 -3.1670928001403809e-03</internalNodes>
          <leafValues>
            7.3493337631225586e-01 -1.5076984465122223e-01</leafValues></_>
        <_>
          <internalNodes>
            0 -1 16 1.7680906239547767e-05</internalNodes>
          <leafValues>
            1.2291518598794937e-01 -8.3184677362442017e-01</leafValues></_>
        <_>
          <internalNodes>
            0 -1 163 -8.7587423622608185e-03</internalNodes>
          <leafValues>
            8.3881509304046631e-01 -1.0972466319799423e-01</leafValues></_>
        <_>
          <internalNodes>
            0 -1 140 -1.3119765753799584e-05</internalNodes>
          <leafValues>
            -8.5527098178863525e-01 8.6859203875064850e-02</leafValues></_>
        <_>
          <internalNodes>
            0 -1 284 -2.4701575748622417e-03</internalNodes>
          <leafValues>
            8.0470651388168335e-01 -7.1435250341892242e-02</leafValues></_>
        <_>
          <internalNodes>
            0 -1 141 -2.4347882717847824e-02</internalNodes>
          <leafValues>
            -9.5372790098190308e-01 6.2336083501577377e-02</leafValues></_>
        <_>
          <internalNodes>
            0 -1 142 5.3663365542888641e-02</internalNodes>
          <leafValues>
            4.1034508496522903e-02 -9.4520944356918335e-01</leafValues></_>
        <_>
          <internalNodes>
            0 -1 316 -1.8001405987888575e-03</internalNodes>
          <leafValues>
            8.2774597406387329e-01 -6.1965059489011765e-02</leafValues></_>
        <_>
          <internalNodes>
            0 -1 222 -1.2712467461824417e-02</internalNodes>
          <leafValues>
            -8.1825351715087891e-01 3.9134394377470016e-02</leafValues></_>
        <_>
          <internalNodes>
            0 -1 193 7.2064215783029795e-04</internalNodes>
          <leafValues>
            -3.6949440836906433e-02 8.2184261083602905e-01</leafValues></_>
        <_>
          <internalNodes>
            0 -1 94 4.0520881157135591e-05</internalNodes>
          <leafValues>
            1.5574685297906399e-02 -9.3413197994232178e-01</leafValues></_>
        <_>
          <internalNodes>
            0 -1 292 -1.8683452159166336e-02</internalNodes>
          <leafValues>
            1. -2.0914619788527489e-02</leafValues></_>
        <_>
          <internalNodes>
            0 -1 145 1.5978119336068630e-05</internalNodes>
          <leafValues>
            2.2845761850476265e-02 -1.</leafValues></_>
        <_>
          <internalNodes>
            0 -1 250 -3.5548408050090075e-03</internalNodes>
          <leafValues>
            1. -1.6703898087143898e-02</leafValues></_>
        <_>
          <internalNodes>
            0 -1 374 -1.0315431281924248e-03</internalNodes>
          <leafValues>
            -9.1452401876449585e-01 1.2558485381305218e-02</leafValues></_>
        <_>
          <internalNodes>
            0 -1 135 -1.2751179383485578e-05</internalNodes>
          <leafValues>
            9.5113080739974976e-01 -9.6558667719364166e-03</leafValues></_>
        <_>
          <internalNodes>
            0 -1 227 8.9643703540787101e-04</internalNodes>
          <leafValues>
            3.5714772529900074e-03 -9.3703889846801758e-01</leafValues></_>
        <_>
          <internalNodes>
            0 -1 332 -1.9565680995583534e-03</internalNodes>
          <leafValues>
            9.1560369729995728e-01 -7.3088002391159534e-03</leafValues></_>
        <_>
          <internalNodes>
            0 -1 195 -1.5938031719997525e-04</internalNodes>
          <leafValues>
            -1. 1.3458358589559793e-03</leafValues></_>
        <_>
          <internalNodes>
            0 -1 268 -4.9043429316952825e-04</internalNodes>
          <leafValues>
            1. -3.1080725602805614e-03</leafValues></_>
        <_>
          <internalNodes>
            0 -1 75 -4.0547896787757054e-05</internalNodes>
          <leafValues>
            -1. 2.3923220578581095e-03</leafValues></_>
        <_>
          <internalNodes>
            0 -1 70 -4.7254101373255253e-03</internalNodes>
          <leafValues>
            1. 1.4726250665262341e-03</leafValues></_>
        <_>
          <internalNodes>
            0 -1 355 -4.0928335511125624e-04</internalNodes>
          <leafValues>
            -9.3921983242034912e-01 6.5229320898652077e-03</leafValues></_>
        <_>
          <internalNodes>
            0 -1 83 -8.0382620217278600e-04</internalNodes>
          <leafValues>
            1. -1.1575862299650908e-03</leafValues></_>
        <_>
          <internalNodes>
            0 -1 233 -3.8665509782731533e-04</internalNodes>
          <leafValues>
            -1. -1.1355178430676460e-03</leafValues></_>
        <_>
          <internalNodes>
            0 -1 44 -2.5773048400878906e-03</internalNodes>
          <leafValues>
            1. 9.0900366194546223e-04</leafValues></_>
        <_>
          <internalNodes>
            0 -1 44 -8.3621998783200979e-04</internalNodes>
          <leafValues>
            -1. 3.8528919685631990e-03</leafValues></_>
        <_>
          <internalNodes>
            0 -1 42 -4.4123335101176053e-05</internalNodes>
          <leafValues>
            1. -2.8491788543760777e-03</leafValues></_>
        <_>
          <internalNodes>
            0 -1 42 -1.1949229519814253e-03</internalNodes>
          <leafValues>
            -1. 2.1054856479167938e-03</leafValues></_>
        <_>
          <internalNodes>
            0 -1 39 -1.1220668675377965e-03</internalNodes>
          <leafValues>
            1. -2.1054903045296669e-03</leafValues></_>
        <_>
          <internalNodes>
            0 -1 39 -1.4214350376278162e-03</internalNodes>
          <leafValues>
            -1. 2.1864618174731731e-03</leafValues></_>
        <_>
          <internalNodes>
            0 -1 39 -1.1220668675377965e-03</internalNodes>
          <leafValues>
            1. -2.1864613518118858e-03</leafValues></_>
        <_>
          <internalNodes>
            0 -1 39 -1.4214350376278162e-03</internalNodes>
          <leafValues>
            -1. 2.1864613518118858e-03</leafValues></_>
        <_>
          <internalNodes>
            0 -1 39 -1.1220668675377965e-03</internalNodes>
          <leafValues>
            1. -3.0936349648982286e-03</leafValues></_>
        <_>
          <internalNodes>
            0 -1 39 -1.4214350376278162e-03</internalNodes>
          <leafValues>
            -1. 3.0936286784708500e-03</leafValues></_>
        <_>
          <internalNodes>
            0 -1 39 -1.1220668675377965e-03</internalNodes>
          <leafValues>
            1. -3.0936286784708500e-03</leafValues></_>
        <_>
          <internalNodes>
            0 -1 39 -6.7198969190940261e-04</internalNodes>
          <leafValues>
            -1. 3.0936286784708500e-03</leafValues></_>
        <_>
          <internalNodes>
            0 -1 39 -1.1220668675377965e-03</internalNodes>
          <leafValues>
            1. -3.0936286784708500e-03</leafValues></_>
        <_>
          <internalNodes>
            0 -1 39 -6.7198969190940261e-04</internalNodes>
          <leafValues>
            -1. 3.0936286784708500e-03</leafValues></_>
        <_>
          <internalNodes>
            0 -1 39 -1.1220668675377965e-03</internalNodes>
          <leafValues>
            1. -3.0936286784708500e-03</leafValues></_>
        <_>
          <internalNodes>
            0 -1 39 -6.7198969190940261e-04</internalNodes>
          <leafValues>
            -1. 3.0936286784708500e-03</leafValues></_>
        <_>
          <internalNodes>
            0 -1 39 -1.1220668675377965e-03</internalNodes>
          <leafValues>
            1. -3.0936286784708500e-03</leafValues></_>
        <_>
          <internalNodes>
            0 -1 39 -6.7198969190940261e-04</internalNodes>
          <leafValues>
            -1. 3.0936286784708500e-03</leafValues></_>
        <_>
          <internalNodes>
            0 -1 39 -1.1220668675377965e-03</internalNodes>
          <leafValues>
            1. -3.0936286784708500e-03</leafValues></_>
        <_>
          <internalNodes>
            0 -1 39 -6.7198969190940261e-04</internalNodes>
          <leafValues>
            -1. 3.0936286784708500e-03</leafValues></_>
        <_>
          <internalNodes>
            0 -1 39 -1.1220668675377965e-03</internalNodes>
          <leafValues>
            1. -3.0936286784708500e-03</leafValues></_>
        <_>
          <internalNodes>
            0 -1 39 -6.7198969190940261e-04</internalNodes>
          <leafValues>
            -1. 3.0936286784708500e-03</leafValues></_>
        <_>
          <internalNodes>
            0 -1 39 -1.1220668675377965e-03</internalNodes>
          <leafValues>
            1. -3.0936286784708500e-03</leafValues></_>
        <_>
          <internalNodes>
            0 -1 39 -6.7198969190940261e-04</internalNodes>
          <leafValues>
            -1. 3.0936286784708500e-03</leafValues></_>
        <_>
          <internalNodes>
            0 -1 39 -1.1220668675377965e-03</internalNodes>
          <leafValues>
            1. -3.0936286784708500e-03</leafValues></_>
        <_>
          <internalNodes>
            0 -1 39 -6.7198969190940261e-04</internalNodes>
          <leafValues>
            -1. 3.0936286784708500e-03</leafValues></_>
        <_>
          <internalNodes>
            0 -1 39 -1.1220668675377965e-03</internalNodes>
          <leafValues>
            1. -3.0936286784708500e-03</leafValues></_>
        <_>
          <internalNodes>
            0 -1 39 -6.7198969190940261e-04</internalNodes>
          <leafValues>
            -1. 3.0936286784708500e-03</leafValues></_>
        <_>
          <internalNodes>
            0 -1 39 -1.1220668675377965e-03</internalNodes>
          <leafValues>
            1. -3.0936286784708500e-03</leafValues></_>
        <_>
          <internalNodes>
            0 -1 39 -6.7198969190940261e-04</internalNodes>
          <leafValues>
            -1. 3.0936286784708500e-03</leafValues></_>
        <_>
          <internalNodes>
            0 -1 39 -1.1220668675377965e-03</internalNodes>
          <leafValues>
            1. -3.0936286784708500e-03</leafValues></_>
        <_>
          <internalNodes>
            0 -1 39 -6.7198969190940261e-04</internalNodes>
          <leafValues>
            -1. 3.0936286784708500e-03</leafValues></_>
        <_>
          <internalNodes>
            0 -1 39 -1.1220668675377965e-03</internalNodes>
          <leafValues>
            1. -3.0936286784708500e-03</leafValues></_>
        <_>
          <internalNodes>
            0 -1 39 -6.7198969190940261e-04</internalNodes>
          <leafValues>
            -1. 3.0936286784708500e-03</leafValues></_>
        <_>
          <internalNodes>
            0 -1 39 -1.1220668675377965e-03</internalNodes>
          <leafValues>
            1. -3.0936286784708500e-03</leafValues></_>
        <_>
          <internalNodes>
            0 -1 39 -6.7198969190940261e-04</internalNodes>
          <leafValues>
            -1. 3.0936286784708500e-03</leafValues></_>
        <_>
          <internalNodes>
            0 -1 39 -1.1220668675377965e-03</internalNodes>
          <leafValues>
            1. -3.0936286784708500e-03</leafValues></_>
        <_>
          <internalNodes>
            0 -1 39 -6.7198969190940261e-04</internalNodes>
          <leafValues>
            -1. 3.0936286784708500e-03</leafValues></_>
        <_>
          <internalNodes>
            0 -1 39 -1.1220668675377965e-03</internalNodes>
          <leafValues>
            1. -3.0936286784708500e-03</leafValues></_>
        <_>
          <internalNodes>
            0 -1 39 -6.7198969190940261e-04</internalNodes>
          <leafValues>
            -1. 3.0936286784708500e-03</leafValues></_>
        <_>
          <internalNodes>
            0 -1 39 -1.1220668675377965e-03</internalNodes>
          <leafValues>
            1. -3.0936286784708500e-03</leafValues></_>
        <_>
          <internalNodes>
            0 -1 39 -6.7198969190940261e-04</internalNodes>
          <leafValues>
            -1. 3.0936286784708500e-03</leafValues></_>
        <_>
          <internalNodes>
            0 -1 39 -1.1220668675377965e-03</internalNodes>
          <leafValues>
            1. -3.0936286784708500e-03</leafValues></_>
        <_>
          <internalNodes>
            0 -1 39 -6.7198969190940261e-04</internalNodes>
          <leafValues>
            -1. 3.0936286784708500e-03</leafValues></_>
        <_>
          <internalNodes>
            0 -1 39 -1.1220668675377965e-03</internalNodes>
          <leafValues>
            1. -3.0936286784708500e-03</leafValues></_>
        <_>
          <internalNodes>
            0 -1 39 -6.7198969190940261e-04</internalNodes>
          <leafValues>
            -1. 3.0936286784708500e-03</leafValues></_>
        <_>
          <internalNodes>
            0 -1 39 -1.1220668675377965e-03</internalNodes>
          <leafValues>
            1. -3.0936286784708500e-03</leafValues></_>
        <_>
          <internalNodes>
            0 -1 39 -6.7198969190940261e-04</internalNodes>
          <leafValues>
            -1. 3.0936286784708500e-03</leafValues></_>
        <_>
          <internalNodes>
            0 -1 39 -1.1220668675377965e-03</internalNodes>
          <leafValues>
            1. -3.0936286784708500e-03</leafValues></_>
        <_>
          <internalNodes>
            0 -1 39 -6.7198969190940261e-04</internalNodes>
          <leafValues>
            -1. 3.0936286784708500e-03</leafValues></_>
        <_>
          <internalNodes>
            0 -1 39 -1.1220668675377965e-03</internalNodes>
          <leafValues>
            1. -3.0936286784708500e-03</leafValues></_>
        <_>
          <internalNodes>
            0 -1 39 -6.7198969190940261e-04</internalNodes>
          <leafValues>
            -1. 3.0936286784708500e-03</leafValues></_>
        <_>
          <internalNodes>
            0 -1 39 -1.1220668675377965e-03</internalNodes>
          <leafValues>
            1. -3.0936286784708500e-03</leafValues></_>
        <_>
          <internalNodes>
            0 -1 39 -6.7198969190940261e-04</internalNodes>
          <leafValues>
            -1. 3.0936286784708500e-03</leafValues></_>
        <_>
          <internalNodes>
            0 -1 39 -1.1220668675377965e-03</internalNodes>
          <leafValues>
            1. -3.0936286784708500e-03</leafValues></_>
        <_>
          <internalNodes>
            0 -1 39 -6.7198969190940261e-04</internalNodes>
          <leafValues>
            -1. 3.0936286784708500e-03</leafValues></_>
        <_>
          <internalNodes>
            0 -1 39 -1.1220668675377965e-03</internalNodes>
          <leafValues>
            1. -3.0936286784708500e-03</leafValues></_>
        <_>
          <internalNodes>
            0 -1 39 -6.7198969190940261e-04</internalNodes>
          <leafValues>
            -1. 3.0936286784708500e-03</leafValues></_>
        <_>
          <internalNodes>
            0 -1 39 -1.1220668675377965e-03</internalNodes>
          <leafValues>
            1. -3.0936286784708500e-03</leafValues></_>
        <_>
          <internalNodes>
            0 -1 39 -6.7198969190940261e-04</internalNodes>
          <leafValues>
            -1. 3.0936286784708500e-03</leafValues></_>
        <_>
          <internalNodes>
            0 -1 39 -1.1220668675377965e-03</internalNodes>
          <leafValues>
            1. -3.0936286784708500e-03</leafValues></_>
        <_>
          <internalNodes>
            0 -1 39 -6.7198969190940261e-04</internalNodes>
          <leafValues>
            -1. 3.0936286784708500e-03</leafValues></_>
        <_>
          <internalNodes>
            0 -1 39 -1.1220668675377965e-03</internalNodes>
          <leafValues>
            1. -3.0936286784708500e-03</leafValues></_></weakClassifiers></_>
    <!-- stage 6 -->
    <_>
      <maxWeakCount>100</maxWeakCount>
      <stageThreshold>-2.8355147838592529e+00</stageThreshold>
      <weakClassifiers>
        <_>
          <internalNodes>
            0 -1 365 -3.5804433282464743e-03</internalNodes>
          <leafValues>
            5.9139782190322876e-01 -9.4815552234649658e-01</leafValues></_>
        <_>
          <internalNodes>
            0 -1 353 -3.8515441119670868e-03</internalNodes>
          <leafValues>
            5.0475144386291504e-01 -9.0734124183654785e-01</leafValues></_>
        <_>
          <internalNodes>
            0 -1 252 -3.2910733716562390e-04</internalNodes>
          <leafValues>
            7.6868957281112671e-01 -6.0949110984802246e-01</leafValues></_>
        <_>
          <internalNodes>
            0 -1 357 -1.1226499918848276e-03</internalNodes>
          <leafValues>
            9.0955549478530884e-01 -2.9176443815231323e-01</leafValues></_>
        <_>
          <internalNodes>
            0 -1 230 2.9615713283419609e-03</internalNodes>
          <leafValues>
            -1.2061010301113129e-01 9.3778252601623535e-01</leafValues></_>
        <_>
          <internalNodes>
            0 -1 107 4.3490109965205193e-04</internalNodes>
          <leafValues>
            2.0489950478076935e-01 -9.2305088043212891e-01</leafValues></_>
        <_>
          <internalNodes>
            0 -1 215 -4.5782020315527916e-03</internalNodes>
          <leafValues>
            8.4886711835861206e-01 -1.7248725891113281e-01</leafValues></_>
        <_>
          <internalNodes>
            0 -1 76 -1.4049538003746420e-04</internalNodes>
          <leafValues>
            -8.8766813278198242e-01 1.3825190067291260e-01</leafValues></_>
        <_>
          <internalNodes>
            0 -1 173 6.8119238130748272e-03</internalNodes>
          <leafValues>
            -1.2209723889827728e-01 1.</leafValues></_>
        <_>
          <internalNodes>
            0 -1 289 -1.1796079576015472e-02</internalNodes>
          <leafValues>
            7.1071302890777588e-01 -5.6142162531614304e-02</leafValues></_>
        <_>
          <internalNodes>
            0 -1 335 2.2667113225907087e-03</internalNodes>
          <leafValues>
            7.3693141341209412e-02 -9.1390842199325562e-01</leafValues></_>
        <_>
          <internalNodes>
            0 -1 319 2.9222569428384304e-03</internalNodes>
          <leafValues>
            -6.6472299396991730e-02 9.4857436418533325e-01</leafValues></_>
        <_>
          <internalNodes>
            0 -1 220 -4.2385488748550415e-02</internalNodes>
          <leafValues>
            -9.7590601444244385e-01 6.0038320720195770e-02</leafValues></_>
        <_>
          <internalNodes>
            0 -1 139 5.1025100052356720e-02</internalNodes>
          <leafValues>
            2.2754170000553131e-02 -1.</leafValues></_>
        <_>
          <internalNodes>
            0 -1 346 -4.2230919934809208e-03</internalNodes>
          <leafValues>
            8.7375164031982422e-01 -4.2074240744113922e-02</leafValues></_>
        <_>
          <internalNodes>
            0 -1 90 -7.0268157869577408e-03</internalNodes>
          <leafValues>
            -1. 1.9675273448228836e-02</leafValues></_>
        <_>
          <internalNodes>
            0 -1 288 -6.7117428407073021e-03</internalNodes>
          <leafValues>
            1. -2.2929331287741661e-02</leafValues></_>
        <_>
          <internalNodes>
            0 -1 66 2.9116133227944374e-03</internalNodes>
          <leafValues>
            2.0870281383395195e-02 -1.</leafValues></_>
        <_>
          <internalNodes>
            0 -1 306 1.3822014443576336e-03</internalNodes>
          <leafValues>
            -2.1821880713105202e-02 9.3153822422027588e-01</leafValues></_>
        <_>
          <internalNodes>
            0 -1 352 1.0810011997818947e-02</internalNodes>
          <leafValues>
            9.9529623985290527e-03 -1.</leafValues></_>
        <_>
          <internalNodes>
            0 -1 336 -5.6288670748472214e-04</internalNodes>
          <leafValues>
            1. -1.0524246841669083e-02</leafValues></_>
        <_>
          <internalNodes>
            0 -1 95 -3.9773718453943729e-03</internalNodes>
          <leafValues>
            -1. 5.5712382309138775e-03</leafValues></_>
        <_>
          <internalNodes>
